<?xml version="1.0"?>
<opencv_storage>
<output type_id="opencv-haar-classifier">
  <size>
    20 20</size>
  <stages>
    <_>
      <trees>
        <_>
          <_>
            <feature>
              <rects>
                <_>
                  0 0 1 4 -1.</_>
                <_>
                  0 1 1 2 2.</_></rects>
              <tilted>0</tilted></feature>
            <threshold>-4.9619097262620926e-004</threshold>
            <left_val>1.</left_val>
            <right_val>-1.</right_val></_></_></trees>
      <stage_threshold>1.</stage_threshold>
      <parent>-1</parent>
      <next>-1</next></_>
    <_>
      <trees>
        <_>
          <_>
            <feature>
              <rects>
                <_>
                  0 0 1 10 -1.</_>
                <_>
                  0 5 1 5 2.</_></rects>
              <tilted>0</tilted></feature>
            <threshold>0.0239742491394281</threshold>
            <left_val>-1.</left_val>
            <right_val>1.</right_val></_></_></trees>
      <stage_threshold>1.</stage_threshold>
      <parent>0</parent>
      <next>-1</next></_>
    <_>
      <trees>
        <_>
          <_>
            <feature>
              <rects>
                <_>
                  0 0 2 12 -1.</_>
                <_>
                  0 0 1 6 2.</_>
                <_>
                  1 6 1 6 2.</_></rects>
              <tilted>0</tilted></feature>
            <threshold>-0.0110712796449661</threshold>
            <left_val>1.</left_val>
            <right_val>-1.</right_val></_></_></trees>
      <stage_threshold>1.</stage_threshold>
      <parent>1</parent>
      <next>-1</next></_>
    <_>
      <trees>
        <_>
          <_>
            <feature>
              <rects>
                <_>
                  0 0 1 16 -1.</_>
                <_>
                  0 4 1 8 2.</_></rects>
              <tilted>0</tilted></feature>
            <threshold>9.5375031232833862e-003</threshold>
            <left_val>1.</left_val>
            <right_val>-1.</right_val></_></_></trees>
      <stage_threshold>1.</stage_threshold>
      <parent>2</parent>
      <next>-1</next></_></stages></output>
</opencv_storage>
